[-0.15321673  1.0428386  -0.7245892  -0.04343993  0.42338863  0.02538261
 -0.40465942 -0.0242596  -1.226809   -0.8168446   0.26588777 -1.0929432
  0.5383322  -0.73875046]
[-0.03072096 -1.369665   -0.357126   -0.21180922  0.3853204   0.22853081
 -0.3705557  -0.21977347 -0.6684716   0.12849599  1.0226644  -0.0922638
 -0.7828449  -0.6572327 ]
[-1.2444692   0.61213857  0.07965802  0.12361202  0.62641835  0.9720597
  0.3863232   0.59948945  1.0857513   0.49231085 -0.5319295   0.29433587
 -0.64177823  0.17603302]
[-0.9938292  -0.4438207  -0.03172896  0.06261964 -0.3870194   0.7637992
  0.0244509  -0.04825407  0.91551745 -0.78740424  0.29226422 -0.52767307
 -0.41744384  0.5567152 ]
[-0.39049304  0.8842579  -0.8447943  -0.19669186  0.7207061   0.16780053
  0.3728221   0.08680353  0.7535456  -0.1000197   0.02029054  0.8640245
 -0.15881588  1.1905665 ]
[ 1.0482084   0.9248296  -0.26946014  0.57047915 -0.32660747  0.6914731
 -0.18025818  0.3816289  -0.69358927  0.21312684 -0.39932403 -0.02991759
 -0.83068466  0.45619962]
[ 0.75814664  0.10328437  0.07867077 -0.0743314  -0.53440267  0.50492585
 -0.54172474  0.51184535  0.3462249   1.0527638  -0.9503541   0.9235086
 -0.1665241   1.1497779 ]
[-0.77187353  1.1105504   0.24265823  0.53782856 -0.34098852 -0.75576884
 -0.25396293 -0.56288165  0.3851537  -0.67497945  0.14336896  0.763481
 -0.9224985   0.6374753 ]
[-0.79123825  0.68166596 -0.30061013 -0.19360289  0.5632736   0.36276665
  0.7470975   0.48115698  0.10046808 -0.8064349  -1.036736   -0.68296516
 -1.156437    0.52633154]
[ 0.1788832  -1.5321186  -0.62001514 -0.3870902   0.97524184  0.6088638
 -0.08297889 -0.05180515 -0.29096788  0.7519439   0.8803648   0.82771575
 -0.854887    0.1742936 ]
